<?xml version="1.0"?>
<opencv_storage>
<cascade>
  <stageType>BOOST</stageType>
  <featureType>HAAR</featureType>
  <height>32</height>
  <width>32</width>
  <stageParams>
    <boostType>GAB</boostType>
    <minHitRate>9.9500000476837158e-001</minHitRate>
    <maxFalseAlarm>5.0000000000000000e-001</maxFalseAlarm>
    <weightTrimRate>9.4999999999999996e-001</weightTrimRate>
    <maxDepth>3</maxDepth>
    <maxWeakCount>100</maxWeakCount></stageParams>
  <featureParams>
    <maxCatCount>0</maxCatCount>
    <featSize>1</featSize>
    <mode>ALL</mode></featureParams>
  <stageNum>6</stageNum>
  <stages>
    <!-- stage 0 -->
    <_>
      <maxWeakCount>3</maxWeakCount>
      <stageThreshold>-1.2058706283569336e+000</stageThreshold>
      <weakClassifiers>
        <_>
          <internalNodes>
            1 2 14 3.1517142057418823e-001 3 4 29
            4.9514357000589371e-002 5 6 55 -1.3945734128355980e-002 0 -1
            42 4.2816039174795151e-002 -2 -3 111 4.9517387524247169e-003
            -4 -5 102 -2.3187110200524330e-003 -6 -7 54
            -1.5154482796788216e-002</internalNodes>
          <leafValues>
            -9.6641844511032104e-001 8.9285713434219360e-001
            -6.9620251655578613e-001 8.9928054809570313e-001
            -7.1428573131561279e-001 9.8130840063095093e-001
            6.4444446563720703e-001 -8.5611510276794434e-001</leafValues></_>
        <_>
          <internalNodes>
            1 2 106 -2.0650109276175499e-002 3 4 93
            -1.6139067709445953e-002 5 6 117 -4.2952179908752441e-002 0
            -1 100 1.1249603703618050e-003 -2 -3 108
            -1.8465653061866760e-002 -4 -5 84 -1.4532236382365227e-002
            -6 -7 59 1.0883132927119732e-002</internalNodes>
          <leafValues>
            9.8381012678146362e-001 -1. 1. -9.7063428163528442e-001
            9.2895931005477905e-001 -7.9801923036575317e-001
            -8.9874058961868286e-001 7.5540345907211304e-001</leafValues></_>
        <_>
          <internalNodes>
            1 2 79 7.2839476168155670e-002 3 4 2
            -7.2643063962459564e-002 5 6 28 -2.9497318901121616e-003 0
            -1 96 -3.2553034834563732e-003 -2 -3 40
            -3.5127542912960052e-002 -4 -5 50 -4.1882149875164032e-002
            -6 -7 32 -5.7255907449871302e-004</internalNodes>
          <leafValues>
            9.7370547056198120e-001 -9.3306964635848999e-001
            6.5928846597671509e-001 -8.9054590463638306e-001
            8.7581086158752441e-001 -9.6343833208084106e-001
            -5.4752159118652344e-001 9.2965054512023926e-001</leafValues></_></weakClassifiers></_>
    <!-- stage 1 -->
    <_>
      <maxWeakCount>3</maxWeakCount>
      <stageThreshold>-1.4527778625488281e+000</stageThreshold>
      <weakClassifiers>
        <_>
          <internalNodes>
            1 2 92 -3.4955427050590515e-002 3 4 116
            -1.5435686334967613e-002 5 6 20 -3.5661879926919937e-002 0
            -1 45 9.6982135437428951e-004 -2 -3 15
            1.0344421118497849e-001 -4 -5 85 -1.0440565645694733e-002 -6
            -7 41 -2.5780739262700081e-002</internalNodes>
          <leafValues>
            9.9829059839248657e-001 -2.5000000000000000e-001
            -9.5555555820465088e-001 7.5757575035095215e-001
            8.6592179536819458e-001 -9.1666668653488159e-001
            6.0655736923217773e-001 -9.1756373643875122e-001</leafValues></_>
        <_>
          <internalNodes>
            1 2 11 -2.0877081900835037e-002 3 4 39
            -6.6125853918492794e-003 5 6 97 -5.7994373142719269e-002 0
            -1 44 -5.6955763138830662e-003 -2 -3 83
            -4.5273166149854660e-002 -4 -5 51 -2.8970096260309219e-002
            -6 -7 114 -3.8318827748298645e-002</internalNodes>
          <leafValues>
            -6.3761466741561890e-001 9.3724006414413452e-001
            8.0018067359924316e-001 -7.7227747440338135e-001
            9.0347677469253540e-001 -7.4789804220199585e-001
            1.3567104935646057e-001 -8.8273847103118896e-001</leafValues></_>
        <_>
          <internalNodes>
            1 2 12 -3.2447196543216705e-002 3 4 17
            1.5546970535069704e-003 5 6 120 -1.7674321308732033e-002 0
            -1 48 -2.2177964448928833e-002 -2 -3 46
            -3.8846598472446203e-003 -4 -5 103 -4.6614655293524265e-003
            -6 -7 113 -1.2574505992233753e-002</internalNodes>
          <leafValues>
            1. -9.7115087509155273e-001 -6.9868028163909912e-001
            9.2375248670578003e-001 -6.0850226879119873e-001
            7.0419180393218994e-001 3.4752440452575684e-001
            -8.7344306707382202e-001</leafValues></_></weakClassifiers></_>
    <!-- stage 2 -->
    <_>
      <maxWeakCount>3</maxWeakCount>
      <stageThreshold>-1.4488942623138428e+000</stageThreshold>
      <weakClassifiers>
        <_>
          <internalNodes>
            1 2 101 -3.2704927027225494e-002 3 4 26
            -1.4306059107184410e-002 5 6 8 -1.1716759204864502e-001 0 -1
            80 6.9018476642668247e-004 -2 -3 25 1.5568805858492851e-002
            -4 -5 7 -7.1981856599450111e-003 -6 -7 38
            6.8512246012687683e-002</internalNodes>
          <leafValues>
            -8.1818181276321411e-001 9.8918920755386353e-001
            -8.9333331584930420e-001 6.3636362552642822e-001
            5.7586836814880371e-001 -7.1078431606292725e-001
            -9.2363196611404419e-001 6.1764705181121826e-001</leafValues></_>
        <_>
          <internalNodes>
            1 2 16 3.5779308527708054e-002 3 4 122
            -2.5526154786348343e-002 5 6 76 -2.3515120148658752e-002 0
            -1 37 -1.2257407419383526e-002 -2 -3 105
            -1.8189407885074615e-002 -4 -5 18 8.2099568098783493e-003 -6
            -7 36 -6.3593015074729919e-002</internalNodes>
          <leafValues>
            6.4644426107406616e-001 -5.4113292694091797e-001
            3.2455334067344666e-001 -8.6257761716842651e-001
            -8.4180152416229248e-001 9.4336187839508057e-001 1.
            -9.4635266065597534e-001</leafValues></_>
        <_>
          <internalNodes>
            1 2 62 -1.3261269778013229e-003 3 4 13
            -9.7216084599494934e-002 5 6 75 -1.6968732234090567e-004 0
            -1 56 4.6843430027365685e-003 -2 -3 57
            -3.0958428978919983e-002 -4 -5 88 4.7433800995349884e-002 -6
            -7 63 1.1312400456517935e-003</internalNodes>
          <leafValues>
            -1. 9.8009383678436279e-001 7.1991282701492310e-001
            -9.2718303203582764e-001 -8.4633022546768188e-001
            3.3731544017791748e-001 5.4708260297775269e-001
            -9.1461426019668579e-001</leafValues></_></weakClassifiers></_>
    <!-- stage 3 -->
    <_>
      <maxWeakCount>3</maxWeakCount>
      <stageThreshold>-1.3800880908966064e+000</stageThreshold>
      <weakClassifiers>
        <_>
          <internalNodes>
            1 2 115 3.5942949354648590e-002 3 4 24
            -1.0957814753055573e-002 5 6 82 2.9344724491238594e-002 0 -1
            86 -3.7075623869895935e-002 -2 -3 53
            -1.6577687114477158e-002 -4 -5 21 -8.1711430102586746e-003
            -6 -7 107 6.5295590320602059e-004</internalNodes>
          <leafValues>
            7.0573568344116211e-001 -6.7567569017410278e-001
            4.7692307829856873e-001 -9.0124893188476563e-001
            8.4615385532379150e-001 -9.7802197933197021e-001
            -6.9230771064758301e-001 9.9806201457977295e-001</leafValues></_>
        <_>
          <internalNodes>
            1 2 118 -1.1259477585554123e-002 3 4 3
            -1.5237824991345406e-002 5 6 95 -3.8157299160957336e-002 0
            -1 19 -5.1459204405546188e-003 -2 -3 109
            -5.0061726942658424e-003 -4 -5 27 -5.8937098830938339e-002
            -6 -7 98 -1.1287841945886612e-002</internalNodes>
          <leafValues>
            -6.0178232192993164e-001 9.4487172365188599e-001
            7.5983369350433350e-001 -8.0224603414535522e-001
            8.0516278743743896e-001 -6.6410243511199951e-001
            3.5913699865341187e-001 -7.8498536348342896e-001</leafValues></_>
        <_>
          <internalNodes>
            1 2 68 8.6305439472198486e-003 3 4 6
            -2.7862414717674255e-002 5 6 49 1.0694144293665886e-002 0 -1
            87 1.9544240087270737e-002 -2 -3 1 -1.5163429081439972e-001
            -4 -5 119 -2.0045435056090355e-002 -6 -7 91
            6.7213959991931915e-003</internalNodes>
          <leafValues>
            -7.6731246709823608e-001 7.0427429676055908e-001
            3.0614623427391052e-001 -8.2243704795837402e-001
            6.4101421833038330e-001 -7.3284268379211426e-001
            8.7313842773437500e-001 -9.6582049131393433e-001</leafValues></_></weakClassifiers></_>
    <!-- stage 4 -->
    <_>
      <maxWeakCount>3</maxWeakCount>
      <stageThreshold>-2.3753714561462402e+000</stageThreshold>
      <weakClassifiers>
        <_>
          <internalNodes>
            1 2 92 -4.2924009263515472e-002 3 4 30
            -1.1541523039340973e-002 5 6 58 -1.7759785056114197e-002 0
            -1 89 -2.3178448900580406e-003 -2 -3 23
            1.1193660646677017e-001 -4 -5 81 8.3159878849983215e-003 -6
            -7 110 2.6263928040862083e-002</internalNodes>
          <leafValues>
            -6.7346936464309692e-001 9.9059265851974487e-001
            -9.4535517692565918e-001 1. -7.8461539745330811e-001
            8.6915886402130127e-001 -8.6634576320648193e-001
            5.9116023778915405e-001</leafValues></_>
        <_>
          <internalNodes>
            1 2 34 -3.4681491553783417e-002 3 4 104
            1.1311408132314682e-002 5 6 121 -3.9345689117908478e-002 0
            -1 22 -3.2656297087669373e-002 -2 -3 33
            -1.8771447939798236e-003 -4 -5 52 -1.8921719864010811e-002
            -6 -7 5 3.8872316479682922e-001</internalNodes>
          <leafValues>
            5.2761679887771606e-001 -7.7044546604156494e-001
            -9.8192673921585083e-001 8.8381367921829224e-001
            8.0436718463897705e-001 -7.9414898157119751e-001
            -7.5455349683761597e-001 8.0324208736419678e-001</leafValues></_>
        <_>
          <internalNodes>
            1 2 64 8.3955610170960426e-004 3 4 65
            -1.1840551160275936e-003 5 6 90 -7.6799564063549042e-002 0
            -1 69 7.5062051415443420e-002 -2 -3 61
            -4.4857189059257507e-003 -4 -5 0 -3.7055499851703644e-002 -6
            -7 60 1.5457197092473507e-002</internalNodes>
          <leafValues>
            -7.5447213649749756e-001 4.6912378072738647e-001
            -7.6954317092895508e-001 6.8215227127075195e-001 1. -1.
            -9.2496347427368164e-001 8.4399312734603882e-001</leafValues></_></weakClassifiers></_>
    <!-- stage 5 -->
    <_>
      <maxWeakCount>3</maxWeakCount>
      <stageThreshold>-1.6974589824676514e+000</stageThreshold>
      <weakClassifiers>
        <_>
          <internalNodes>
            1 2 112 2.2728141397237778e-002 3 4 70
            -1.9855055958032608e-002 5 6 94 -1.3346130959689617e-002 0
            -1 72 -6.0773529112339020e-003 -2 -3 73
            -6.8511396646499634e-002 -4 -5 31 2.8036376461386681e-003 -6
            -7 35 -3.2115072011947632e-002</internalNodes>
          <leafValues>
            -8.0645161867141724e-001 9.7927463054656982e-001
            -1.3972602784633636e-001 -8.9399611949920654e-001 -1.
            9.9607455730438232e-001 8.5185188055038452e-001
            -8.9629632234573364e-001</leafValues></_>
        <_>
          <internalNodes>
            1 2 34 -3.4669451415538788e-002 3 4 99
            3.9240300655364990e-002 5 6 65 -1.1444210540503263e-003 0 -1
            67 -7.5313360430300236e-003 -2 -3 78 7.7347569167613983e-003
            -4 -5 4 4.0894323587417603e-001 -6 -7 66
            6.8962329532951117e-004</internalNodes>
          <leafValues>
            4.7772175073623657e-001 -8.3433043956756592e-001
            9.1798138618469238e-001 -6.4613032341003418e-001
            -9.4555085897445679e-001 7.8207868337631226e-001
            2.1653574705123901e-001 -8.2444697618484497e-001</leafValues></_>
        <_>
          <internalNodes>
            1 2 77 -7.0263496600091457e-003 3 4 47
            8.4206368774175644e-004 5 6 43 -2.4579405784606934e-002 0 -1
            74 -1.0934586171060801e-003 -2 -3 9 -2.7833867818117142e-002
            -4 -5 10 -9.8292212933301926e-003 -6 -7 71
            -1.3805096969008446e-002</internalNodes>
          <leafValues>
            -5.6235283613204956e-001 8.5718709230422974e-001 1.
            -9.8330438137054443e-001 8.0323767662048340e-001
            -7.1398043632507324e-001 2.1979276835918427e-001
            -7.3328602313995361e-001</leafValues></_></weakClassifiers></_></stages>
  <features>
    <_>
      <rects>
        <_>
          0 0 12 21 -1.</_>
        <_>
          4 7 4 7 9.</_></rects>
      <tilted>0</tilted></_>
    <_>
      <rects>
        <_>
          0 3 28 15 -1.</_>
        <_>
          7 3 14 15 2.</_></rects>
      <tilted>0</tilted></_>
    <_>
      <rects>
        <_>
          0 6 10 19 -1.</_>
        <_>
          5 6 5 19 2.</_></rects>
      <tilted>0</tilted></_>
    <_>
      <rects>
        <_>
          0 7 12 18 -1.</_>
        <_>
          4 7 4 18 3.</_></rects>
      <tilted>0</tilted></_>
    <_>
      <rects>
        <_>
          0 7 32 17 -1.</_>
        <_>
          8 7 16 17 2.</_></rects>
      <tilted>0</tilted></_>
    <_>
      <rects>
        <_>
          0 7 32 18 -1.</_>
        <_>
          8 7 16 18 2.</_></rects>
      <tilted>0</tilted></_>
    <_>
      <rects>
        <_>
          0 12 9 9 -1.</_>
        <_>
          3 12 3 9 3.</_></rects>
      <tilted>0</tilted></_>
    <_>
      <rects>
        <_>
          1 15 16 1 -1.</_>
        <_>
          5 19 8 1 2.</_></rects>
      <tilted>1</tilted></_>
    <_>
      <rects>
        <_>
          1 24 30 6 -1.</_>
        <_>
          11 26 10 2 9.</_></rects>
      <tilted>0</tilted></_>
    <_>
      <rects>
        <_>
          2 4 27 1 -1.</_>
        <_>
          11 4 9 1 3.</_></rects>
      <tilted>0</tilted></_>
    <_>
      <rects>
        <_>
          2 7 15 4 -1.</_>
        <_>
          7 7 5 4 3.</_></rects>
      <tilted>0</tilted></_>
    <_>
      <rects>
        <_>
          2 11 6 11 -1.</_>
        <_>
          4 11 2 11 3.</_></rects>
      <tilted>0</tilted></_>
    <_>
      <rects>
        <_>
          2 12 8 20 -1.</_>
        <_>
          2 12 4 10 2.</_>
        <_>
          6 22 4 10 2.</_></rects>
      <tilted>0</tilted></_>
    <_>
      <rects>
        <_>
          3 1 3 30 -1.</_>
        <_>
          4 11 1 10 9.</_></rects>
      <tilted>0</tilted></_>
    <_>
      <rects>
        <_>
          4 4 24 24 -1.</_>
        <_>
          12 12 8 8 9.</_></rects>
      <tilted>0</tilted></_>
    <_>
      <rects>
        <_>
          4 5 21 21 -1.</_>
        <_>
          11 5 7 21 3.</_></rects>
      <tilted>0</tilted></_>
    <_>
      <rects>
        <_>
          4 9 6 14 -1.</_>
        <_>
          7 9 3 14 2.</_></rects>
      <tilted>0</tilted></_>
    <_>
      <rects>
        <_>
          4 19 24 1 -1.</_>
        <_>
          12 19 8 1 3.</_></rects>
      <tilted>0</tilted></_>
    <_>
      <rects>
        <_>
          5 5 14 10 -1.</_>
        <_>
          12 5 7 10 2.</_></rects>
      <tilted>0</tilted></_>
    <_>
      <rects>
        <_>
          5 9 9 12 -1.</_>
        <_>
          5 13 9 4 3.</_></rects>
      <tilted>0</tilted></_>
    <_>
      <rects>
        <_>
          5 17 10 4 -1.</_>
        <_>
          5 17 10 2 2.</_></rects>
      <tilted>1</tilted></_>
    <_>
      <rects>
        <_>
          5 19 4 8 -1.</_>
        <_>
          5 19 2 4 2.</_>
        <_>
          7 23 2 4 2.</_></rects>
      <tilted>0</tilted></_>
    <_>
      <rects>
        <_>
          6 3 18 3 -1.</_>
        <_>
          12 4 6 1 9.</_></rects>
      <tilted>0</tilted></_>
    <_>
      <rects>
        <_>
          6 9 19 20 -1.</_>
        <_>
          6 14 19 10 2.</_></rects>
      <tilted>0</tilted></_>
    <_>
      <rects>
        <_>
          6 20 6 2 -1.</_>
        <_>
          6 20 6 1 2.</_></rects>
      <tilted>1</tilted></_>
    <_>
      <rects>
        <_>
          7 2 10 6 -1.</_>
        <_>
          7 2 5 3 2.</_>
        <_>
          12 5 5 3 2.</_></rects>
      <tilted>0</tilted></_>
    <_>
      <rects>
        <_>
          7 16 10 6 -1.</_>
        <_>
          5 18 10 2 3.</_></rects>
      <tilted>1</tilted></_>
    <_>
      <rects>
        <_>
          7 17 19 15 -1.</_>
        <_>
          7 22 19 5 3.</_></rects>
      <tilted>0</tilted></_>
    <_>
      <rects>
        <_>
          7 23 14 2 -1.</_>
        <_>
          14 23 7 2 2.</_></rects>
      <tilted>0</tilted></_>
    <_>
      <rects>
        <_>
          7 24 18 8 -1.</_>
        <_>
          7 28 18 4 2.</_></rects>
      <tilted>0</tilted></_>
    <_>
      <rects>
        <_>
          8 2 6 6 -1.</_>
        <_>
          10 4 2 6 3.</_></rects>
      <tilted>1</tilted></_>
    <_>
      <rects>
        <_>
          8 5 20 9 -1.</_>
        <_>
          13 5 10 9 2.</_></rects>
      <tilted>0</tilted></_>
    <_>
      <rects>
        <_>
          8 5 6 6 -1.</_>
        <_>
          8 8 6 3 2.</_></rects>
      <tilted>0</tilted></_>
    <_>
      <rects>
        <_>
          8 11 13 4 -1.</_>
        <_>
          8 11 13 2 2.</_></rects>
      <tilted>1</tilted></_>
    <_>
      <rects>
        <_>
          8 17 9 6 -1.</_>
        <_>
          6 19 9 2 3.</_></rects>
      <tilted>1</tilted></_>
    <_>
      <rects>
        <_>
          8 18 6 8 -1.</_>
        <_>
          6 20 6 4 2.</_></rects>
      <tilted>1</tilted></_>
    <_>
      <rects>
        <_>
          9 0 6 7 -1.</_>
        <_>
          11 2 2 7 3.</_></rects>
      <tilted>1</tilted></_>
    <_>
      <rects>
        <_>
          9 0 14 6 -1.</_>
        <_>
          9 3 14 3 2.</_></rects>
      <tilted>0</tilted></_>
    <_>
      <rects>
        <_>
          9 2 6 8 -1.</_>
        <_>
          9 2 3 8 2.</_></rects>
      <tilted>1</tilted></_>
    <_>
      <rects>
        <_>
          9 18 6 6 -1.</_>
        <_>
          7 20 6 2 3.</_></rects>
      <tilted>1</tilted></_>
    <_>
      <rects>
        <_>
          10 2 13 6 -1.</_>
        <_>
          10 4 13 2 3.</_></rects>
      <tilted>0</tilted></_>
    <_>
      <rects>
        <_>
          10 3 3 7 -1.</_>
        <_>
          11 4 1 7 3.</_></rects>
      <tilted>1</tilted></_>
    <_>
      <rects>
        <_>
          10 3 11 6 -1.</_>
        <_>
          10 6 11 3 2.</_></rects>
      <tilted>0</tilted></_>
    <_>
      <rects>
        <_>
          10 3 12 8 -1.</_>
        <_>
          10 5 12 4 2.</_></rects>
      <tilted>0</tilted></_>
    <_>
      <rects>
        <_>
          10 17 6 4 -1.</_>
        <_>
          12 19 2 4 3.</_></rects>
      <tilted>1</tilted></_>
    <_>
      <rects>
        <_>
          10 17 6 9 -1.</_>
        <_>
          7 20 6 3 3.</_></rects>
      <tilted>1</tilted></_>
    <_>
      <rects>
        <_>
          10 18 6 3 -1.</_>
        <_>
          12 20 2 3 3.</_></rects>
      <tilted>1</tilted></_>
    <_>
      <rects>
        <_>
          10 19 2 4 -1.</_>
        <_>
          10 20 2 2 2.</_></rects>
      <tilted>0</tilted></_>
    <_>
      <rects>
        <_>
          11 0 4 8 -1.</_>
        <_>
          12 1 2 8 2.</_></rects>
      <tilted>1</tilted></_>
    <_>
      <rects>
        <_>
          11 0 4 10 -1.</_>
        <_>
          11 0 2 10 2.</_></rects>
      <tilted>1</tilted></_>
    <_>
      <rects>
        <_>
          11 0 6 10 -1.</_>
        <_>
          13 2 2 10 3.</_></rects>
      <tilted>1</tilted></_>
    <_>
      <rects>
        <_>
          11 0 9 11 -1.</_>
        <_>
          14 3 3 11 3.</_></rects>
      <tilted>1</tilted></_>
    <_>
      <rects>
        <_>
          11 0 10 18 -1.</_>
        <_>
          11 6 10 6 3.</_></rects>
      <tilted>0</tilted></_>
    <_>
      <rects>
        <_>
          11 5 2 6 -1.</_>
        <_>
          11 5 1 6 2.</_></rects>
      <tilted>1</tilted></_>
    <_>
      <rects>
        <_>
          11 22 10 9 -1.</_>
        <_>
          11 25 10 3 3.</_></rects>
      <tilted>0</tilted></_>
    <_>
      <rects>
        <_>
          11 23 12 9 -1.</_>
        <_>
          11 26 12 3 3.</_></rects>
      <tilted>0</tilted></_>
    <_>
      <rects>
        <_>
          11 27 10 2 -1.</_>
        <_>
          11 28 10 1 2.</_></rects>
      <tilted>0</tilted></_>
    <_>
      <rects>
        <_>
          12 2 3 8 -1.</_>
        <_>
          13 3 1 8 3.</_></rects>
      <tilted>1</tilted></_>
    <_>
      <rects>
        <_>
          12 3 8 3 -1.</_>
        <_>
          12 4 8 1 3.</_></rects>
      <tilted>0</tilted></_>
    <_>
      <rects>
        <_>
          12 4 7 2 -1.</_>
        <_>
          12 5 7 1 2.</_></rects>
      <tilted>0</tilted></_>
    <_>
      <rects>
        <_>
          12 4 8 2 -1.</_>
        <_>
          12 5 8 1 2.</_></rects>
      <tilted>0</tilted></_>
    <_>
      <rects>
        <_>
          12 15 9 4 -1.</_>
        <_>
          15 18 3 4 3.</_></rects>
      <tilted>1</tilted></_>
    <_>
      <rects>
        <_>
          12 16 3 3 -1.</_>
        <_>
          13 17 1 1 9.</_></rects>
      <tilted>0</tilted></_>
    <_>
      <rects>
        <_>
          12 17 4 1 -1.</_>
        <_>
          13 17 2 1 2.</_></rects>
      <tilted>0</tilted></_>
    <_>
      <rects>
        <_>
          12 20 8 1 -1.</_>
        <_>
          16 20 4 1 2.</_></rects>
      <tilted>0</tilted></_>
    <_>
      <rects>
        <_>
          12 20 8 2 -1.</_>
        <_>
          16 20 4 2 2.</_></rects>
      <tilted>0</tilted></_>
    <_>
      <rects>
        <_>
          12 21 8 1 -1.</_>
        <_>
          16 21 4 1 2.</_></rects>
      <tilted>0</tilted></_>
    <_>
      <rects>
        <_>
          12 26 8 3 -1.</_>
        <_>
          12 27 8 1 3.</_></rects>
      <tilted>0</tilted></_>
    <_>
      <rects>
        <_>
          12 26 8 4 -1.</_>
        <_>
          12 28 8 2 2.</_></rects>
      <tilted>0</tilted></_>
    <_>
      <rects>
        <_>
          13 2 12 9 -1.</_>
        <_>
          16 5 6 9 2.</_></rects>
      <tilted>1</tilted></_>
    <_>
      <rects>
        <_>
          13 3 7 3 -1.</_>
        <_>
          13 4 7 1 3.</_></rects>
      <tilted>0</tilted></_>
    <_>
      <rects>
        <_>
          13 3 14 4 -1.</_>
        <_>
          13 3 7 2 2.</_>
        <_>
          20 5 7 2 2.</_></rects>
      <tilted>0</tilted></_>
    <_>
      <rects>
        <_>
          13 4 5 8 -1.</_>
        <_>
          11 6 5 4 2.</_></rects>
      <tilted>1</tilted></_>
    <_>
      <rects>
        <_>
          13 10 10 12 -1.</_>
        <_>
          10 13 10 6 2.</_></rects>
      <tilted>1</tilted></_>
    <_>
      <rects>
        <_>
          13 14 2 6 -1.</_>
        <_>
          13 16 2 2 3.</_></rects>
      <tilted>0</tilted></_>
    <_>
      <rects>
        <_>
          13 17 2 1 -1.</_>
        <_>
          14 17 1 1 2.</_></rects>
      <tilted>0</tilted></_>
    <_>
      <rects>
        <_>
          13 17 11 12 -1.</_>
        <_>
          13 23 11 6 2.</_></rects>
      <tilted>0</tilted></_>
    <_>
      <rects>
        <_>
          13 26 6 3 -1.</_>
        <_>
          13 27 6 1 3.</_></rects>
      <tilted>0</tilted></_>
    <_>
      <rects>
        <_>
          14 8 4 20 -1.</_>
        <_>
          16 8 2 20 2.</_></rects>
      <tilted>0</tilted></_>
    <_>
      <rects>
        <_>
          15 1 16 13 -1.</_>
        <_>
          19 5 8 13 2.</_></rects>
      <tilted>1</tilted></_>
    <_>
      <rects>
        <_>
          15 4 7 4 -1.</_>
        <_>
          15 6 7 2 2.</_></rects>
      <tilted>0</tilted></_>
    <_>
      <rects>
        <_>
          15 12 14 20 -1.</_>
        <_>
          15 12 7 10 2.</_>
        <_>
          22 22 7 10 2.</_></rects>
      <tilted>0</tilted></_>
    <_>
      <rects>
        <_>
          16 1 16 3 -1.</_>
        <_>
          20 5 8 3 2.</_></rects>
      <tilted>1</tilted></_>
    <_>
      <rects>
        <_>
          16 10 16 10 -1.</_>
        <_>
          20 10 8 10 2.</_></rects>
      <tilted>0</tilted></_>
    <_>
      <rects>
        <_>
          16 13 4 15 -1.</_>
        <_>
          11 18 4 5 3.</_></rects>
      <tilted>1</tilted></_>
    <_>
      <rects>
        <_>
          16 14 16 8 -1.</_>
        <_>
          20 14 8 8 2.</_></rects>
      <tilted>0</tilted></_>
    <_>
      <rects>
        <_>
          17 12 15 4 -1.</_>
        <_>
          22 17 5 4 3.</_></rects>
      <tilted>1</tilted></_>
    <_>
      <rects>
        <_>
          17 17 6 8 -1.</_>
        <_>
          17 17 6 4 2.</_></rects>
      <tilted>1</tilted></_>
    <_>
      <rects>
        <_>
          17 18 4 10 -1.</_>
        <_>
          17 18 4 5 2.</_></rects>
      <tilted>1</tilted></_>
    <_>
      <rects>
        <_>
          18 4 1 24 -1.</_>
        <_>
          18 12 1 8 3.</_></rects>
      <tilted>0</tilted></_>
    <_>
      <rects>
        <_>
          19 2 10 6 -1.</_>
        <_>
          19 2 10 3 2.</_></rects>
      <tilted>1</tilted></_>
    <_>
      <rects>
        <_>
          19 10 6 14 -1.</_>
        <_>
          19 10 3 7 2.</_>
        <_>
          22 17 3 7 2.</_></rects>
      <tilted>0</tilted></_>
    <_>
      <rects>
        <_>
          20 2 10 4 -1.</_>
        <_>
          20 2 10 2 2.</_></rects>
      <tilted>1</tilted></_>
    <_>
      <rects>
        <_>
          20 7 8 16 -1.</_>
        <_>
          24 7 4 16 2.</_></rects>
      <tilted>0</tilted></_>
    <_>
      <rects>
        <_>
          21 3 5 4 -1.</_>
        <_>
          21 3 5 2 2.</_></rects>
      <tilted>1</tilted></_>
    <_>
      <rects>
        <_>
          21 10 9 12 -1.</_>
        <_>
          24 10 3 12 3.</_></rects>
      <tilted>0</tilted></_>
    <_>
      <rects>
        <_>
          21 16 9 4 -1.</_>
        <_>
          24 19 3 4 3.</_></rects>
      <tilted>1</tilted></_>
    <_>
      <rects>
        <_>
          22 1 10 9 -1.</_>
        <_>
          19 4 10 3 3.</_></rects>
      <tilted>1</tilted></_>
    <_>
      <rects>
        <_>
          22 4 6 2 -1.</_>
        <_>
          22 4 6 1 2.</_></rects>
      <tilted>1</tilted></_>
    <_>
      <rects>
        <_>
          22 7 10 10 -1.</_>
        <_>
          22 7 5 10 2.</_></rects>
      <tilted>1</tilted></_>
    <_>
      <rects>
        <_>
          22 22 1 4 -1.</_>
        <_>
          22 24 1 2 2.</_></rects>
      <tilted>0</tilted></_>
    <_>
      <rects>
        <_>
          23 4 7 4 -1.</_>
        <_>
          23 4 7 2 2.</_></rects>
      <tilted>1</tilted></_>
    <_>
      <rects>
        <_>
          23 6 1 16 -1.</_>
        <_>
          23 10 1 8 2.</_></rects>
      <tilted>0</tilted></_>
    <_>
      <rects>
        <_>
          23 9 2 14 -1.</_>
        <_>
          23 9 2 7 2.</_></rects>
      <tilted>1</tilted></_>
    <_>
      <rects>
        <_>
          23 13 6 18 -1.</_>
        <_>
          23 13 3 9 2.</_>
        <_>
          26 22 3 9 2.</_></rects>
      <tilted>0</tilted></_>
    <_>
      <rects>
        <_>
          24 4 5 3 -1.</_>
        <_>
          23 5 5 1 3.</_></rects>
      <tilted>1</tilted></_>
    <_>
      <rects>
        <_>
          24 10 4 12 -1.</_>
        <_>
          26 10 2 12 2.</_></rects>
      <tilted>0</tilted></_>
    <_>
      <rects>
        <_>
          24 12 2 12 -1.</_>
        <_>
          24 15 2 6 2.</_></rects>
      <tilted>0</tilted></_>
    <_>
      <rects>
        <_>
          25 7 4 10 -1.</_>
        <_>
          25 7 2 5 2.</_>
        <_>
          27 12 2 5 2.</_></rects>
      <tilted>0</tilted></_>
    <_>
      <rects>
        <_>
          25 7 3 2 -1.</_>
        <_>
          25 7 3 1 2.</_></rects>
      <tilted>1</tilted></_>
    <_>
      <rects>
        <_>
          25 11 4 10 -1.</_>
        <_>
          27 11 2 10 2.</_></rects>
      <tilted>0</tilted></_>
    <_>
      <rects>
        <_>
          25 11 6 11 -1.</_>
        <_>
          28 11 3 11 2.</_></rects>
      <tilted>0</tilted></_>
    <_>
      <rects>
        <_>
          25 18 4 5 -1.</_>
        <_>
          25 18 2 5 2.</_></rects>
      <tilted>1</tilted></_>
    <_>
      <rects>
        <_>
          26 10 3 11 -1.</_>
        <_>
          27 10 1 11 3.</_></rects>
      <tilted>0</tilted></_>
    <_>
      <rects>
        <_>
          26 15 6 10 -1.</_>
        <_>
          28 17 2 10 3.</_></rects>
      <tilted>1</tilted></_>
    <_>
      <rects>
        <_>
          26 16 4 9 -1.</_>
        <_>
          26 16 2 9 2.</_></rects>
      <tilted>1</tilted></_>
    <_>
      <rects>
        <_>
          26 17 6 8 -1.</_>
        <_>
          28 19 2 8 3.</_></rects>
      <tilted>1</tilted></_>
    <_>
      <rects>
        <_>
          26 17 6 9 -1.</_>
        <_>
          26 17 3 9 2.</_></rects>
      <tilted>1</tilted></_>
    <_>
      <rects>
        <_>
          26 20 3 5 -1.</_>
        <_>
          27 21 1 5 3.</_></rects>
      <tilted>1</tilted></_>
    <_>
      <rects>
        <_>
          27 16 4 12 -1.</_>
        <_>
          28 17 2 12 2.</_></rects>
      <tilted>1</tilted></_>
    <_>
      <rects>
        <_>
          28 2 4 16 -1.</_>
        <_>
          24 6 4 8 2.</_></rects>
      <tilted>1</tilted></_>
    <_>
      <rects>
        <_>
          28 15 4 12 -1.</_>
        <_>
          28 15 2 12 2.</_></rects>
      <tilted>1</tilted></_>
    <_>
      <rects>
        <_>
          28 17 4 11 -1.</_>
        <_>
          28 17 2 11 2.</_></rects>
      <tilted>1</tilted></_></features></cascade>
</opencv_storage>
